net 
{ 
}
node job 
{
  states = ( "admin." "blue-collar" "entrepreneur" "housemaid" "management" "retired" "self-employed" "services" "student" "technician" "unemployed" "unknown" );
}
node marital 
{
  states = ( "divorced" "married" "single" );
}
node education 
{
  states = ( "primary" "secondary" "tertiary" "unknown" );
}
node default 
{
  states = ( "no" "yes" );
}
node housing 
{
  states = ( "no" "yes" );
}
node loan 
{
  states = ( "no" "yes" );
}
node month 
{
  states = ( "apr" "aug" "dec" "feb" "jan" "jul" "jun" "mar" "may" "nov" "oct" "sep" );
}
node campaign 
{
  states = ( "1" "2" "3" "4" "5" "6" "7" "8" "9" "10" "11" "12" "13" "14" "15" "16" "17" "18" "19" "20" "21" "22" "23" "24" "25" "26" "27" "28" "29" "30" "31" "32" "33" "34" "35" "36" "37" "38" "39" "41" "43" "44" "46" "50" "51" "55" "58" );
}
node previous 
{
  states = ( "no" "yes" );
}
node poutcome 
{
  states = ( "failure" "other" "success" "unknown" );
}
node y 
{
  states = ( "no" "yes" );
}
node age.bin 
{
  states = ( "de17a24" "de24a31" "de31a38" "de38a45" "de45a52" "de52a59" "de59a66" "de66a73" "de73a80" "de80a87" "de87a94" "de94a95]" );
}
node balance.bin 
{
  states = ( "ahorrador" "deudor" );
}
node duration.bin 
{
  states = ( "de0a103" "de103a180" "de180a319" "de319a4918]" );
}
potential ( job | housing loan ) 
{
  data = (((0.09501 0.12236 0.02656 0.04330 0.24691 0.09045 0.04076 0.06451 0.03900 0.17320 0.04286 0.01508)(0.1426332 0.1995820 0.0517241 0.0308255 0.1891327 0.0673981 0.0287356 0.0987461 0.0026123 0.1724138 0.0156740 0.0005225))((0.124085 0.288686 0.031456 0.016018 0.189172 0.019569 0.030369 0.104371 0.012104 0.160252 0.022686 0.001232)(0.1333333 0.2607639 0.0468750 0.0149306 0.1607639 0.0215278 0.0288194 0.1284722 0.0003472 0.1857639 0.0177083 0.0006944))) ;
}
potential ( marital | age.bin ) 
{
  data = ((0.00000 0.08211 0.91789)(0.02663 0.30956 0.66381)(0.07975 0.55032 0.36993)(0.1329 0.6704 0.1967)(0.1544 0.7398 0.1058)(0.19069 0.74470 0.06461)(0.17331 0.79170 0.03499)(0.17213 0.76639 0.06148)(0.22981 0.75776 0.01242)(0.36111 0.61111 0.02778)(0.2222 0.7778 0.0000)(0.6667 0.3333 0.0000)) ;
}
potential ( education | job ) 
{
  data = ((0.03881 0.81871 0.11005 0.03244)(0.39066 0.54899 0.01490 0.04545)(0.11637 0.37590 0.44593 0.06179)(0.52020 0.29743 0.14443 0.03794)(0.03135 0.11740 0.82726 0.02399)(0.34829 0.43403 0.16544 0.05224)(0.08806 0.37867 0.51174 0.02153)(0.08556 0.82413 0.05192 0.03839)(0.04531 0.55502 0.24434 0.15534)(0.02078 0.69794 0.24941 0.03187)(0.19706 0.55379 0.22990 0.01925)(0.1823 0.2240 0.1302 0.4635)) ;
}
potential ( default | loan balance.bin ) 
{
  data = (((0.993023 0.006977)(0.8929 0.1071))((0.97771 0.02229)(0.8579 0.1421))) ;
}
potential ( housing ) 
{
  data = ( 0.4441 0.5559 );
}
potential ( loan ) 
{
  data = ( 0.8402 0.1598 );
}
potential ( month | housing loan previous ) 
{
  data = ((((0.043232 0.303673 0.005771 0.072088 0.042078 0.140609 0.178384 0.015950 0.083526 0.077020 0.022141 0.015530)(0.07557 0.12294 0.03406 0.11336 0.06173 0.06067 0.06812 0.04737 0.13305 0.12134 0.08622 0.07557))((0.007501 0.145990 0.000577 0.042701 0.023081 0.517023 0.120600 0.002885 0.050779 0.082516 0.003462 0.002885)(0.033149 0.038674 0.005525 0.237569 0.132597 0.027624 0.044199 0.011050 0.082873 0.314917 0.049724 0.022099)))(((0.0602156 0.0462354 0.0005482 0.0309759 0.0123355 0.1500365 0.1049890 0.0030154 0.5152595 0.0708151 0.0036550 0.0019189)(0.172100 0.034350 0.005258 0.102348 0.049422 0.010165 0.022433 0.008412 0.422713 0.137049 0.016474 0.019278))((0.0516269 0.0533623 0.0008677 0.0316703 0.0121475 0.2164859 0.1106291 0.0026030 0.4286334 0.0837310 0.0060738 0.0021692)(0.170435 0.024348 0.001739 0.102609 0.085217 0.015652 0.017391 0.001739 0.387826 0.160000 0.017391 0.015652)))) ;
}
potential ( campaign | previous ) 
{
  data = ((0.36679993 0.27802709 0.12381691 0.08236782 0.04022520 0.03084204 0.01750163 0.01232050 0.00828166 0.00750653 0.00497715 0.00465078 0.00363087 0.00228460 0.00216221 0.00212141 0.00212141 0.00126469 0.00142787 0.00126469 0.00097911 0.00044876 0.00065274 0.00061195 0.00044876 0.00032637 0.00024478 0.00053035 0.00036717 0.00024478 0.00036717 0.00024478 0.00008159 0.00012239 0.00016319 0.00012239 0.00008159 0.00004080 0.00000000 0.00004080 0.00012239 0.00004080 0.00004080 0.00000000 0.00000000 0.00004080 0.00004080)(0.4907070 0.2729592 0.1106050 0.0495627 0.0333455 0.0200437 0.0112974 0.0056487 0.0025510 0.0009111 0.0010933 0.0007289 0.0001822 0.0001822 0.0000000 0.0001822 0.0000000 0.0000000 0.0000000 0.0000000 0.0000000 0.0000000 0.0000000 0.0000000 0.0000000 0.0000000 0.0000000 0.0000000 0.0000000 0.0000000 0.0000000 0.0000000 0.0000000 0.0000000 0.0000000 0.0000000 0.0000000 0.0000000 0.0000000 0.0000000 0.0000000 0.0000000 0.0000000 0.0000000 0.0000000 0.0000000 0.0000000)) ;
}
potential ( previous ) 
{
  data = ( 0.8171 0.1829 );
}
potential ( poutcome | housing previous ) 
{
  data = (((0.0 0.0 0.0 1.0)(0.465534 0.200000 0.333010 0.001456))((0.0 0.0 0.0 1.0)(0.6753209 0.2348308 0.0892649 0.0005834))) ;
}
potential ( y | duration.bin ) 
{
  data = ((0.98853 0.01147)(0.94828 0.05172)(0.8904 0.1096)(0.7054 0.2946)) ;
}
potential ( age.bin | job ) 
{
  data = ((0.0086881 0.1708659 0.3182740 0.2012743 0.1699971 0.1036780 0.0257747 0.0011584 0.0002896 0.0000000 0.0000000 0.0000000)(0.0075246 0.1412776 0.2936118 0.2349509 0.1882678 0.1110258 0.0224201 0.0006143 0.0003071 0.0000000 0.0000000 0.0000000)(0.00309 0.08548 0.26468 0.25747 0.21318 0.15036 0.02472 0.00103 0.00000 0.00000 0.00000 0.00000)(0.006120 0.046512 0.188494 0.200734 0.223990 0.219094 0.090575 0.013464 0.003672 0.007344 0.000000 0.000000)(0.0022393 0.1266795 0.3437300 0.2071337 0.1580294 0.1241203 0.0347089 0.0025592 0.0007997 0.0000000 0.0000000 0.0000000)(0.000000 0.002009 0.006028 0.022103 0.050904 0.324849 0.315472 0.127930 0.098459 0.044206 0.006028 0.002009)(0.0009785 0.1545988 0.3023483 0.2142857 0.1673190 0.1281800 0.0283757 0.0029354 0.0009785 0.0000000 0.0000000 0.0000000)(0.0127971 0.1842779 0.3133455 0.2135283 0.1572212 0.1078611 0.0106033 0.0003656 0.0000000 0.0000000 0.0000000 0.0000000)(0.279935 0.563107 0.126214 0.027508 0.003236 0.000000 0.000000 0.000000 0.000000 0.000000 0.000000 0.000000)(0.004949 0.144893 0.350158 0.215756 0.155780 0.108472 0.018409 0.001584 0.000000 0.000000 0.000000 0.000000)(0.006795 0.155153 0.269536 0.206116 0.169875 0.151755 0.039638 0.001133 0.000000 0.000000 0.000000 0.000000)(0.00000 0.07292 0.11458 0.15625 0.26042 0.25000 0.11458 0.02083 0.01042 0.00000 0.00000 0.00000)) ;
}
potential ( balance.bin | housing loan ) 
{
  data = (((0.96599 0.03401)(0.8433 0.1567))((0.90491 0.09509)(0.8257 0.1743))) ;
}
potential ( duration.bin | poutcome ) 
{
  data = ((0.2410 0.2731 0.2560 0.2300)(0.2564 0.2317 0.2325 0.2794)(0.09073 0.19556 0.36794 0.34577)(0.2538 0.2517 0.2434 0.2511)) ;
}
