net 
{ 
}
node job 
{
  states = ( "admin." "blue-collar" "entrepreneur" "housemaid" "management" "retired" "self-employed" "services" "student" "technician" "unemployed" "unknown" );
}
node marital 
{
  states = ( "divorced" "married" "single" );
}
node education 
{
  states = ( "primary" "secondary" "tertiary" "unknown" );
}
node default 
{
  states = ( "no" "yes" );
}
node housing 
{
  states = ( "no" "yes" );
}
node loan 
{
  states = ( "no" "yes" );
}
node month 
{
  states = ( "apr" "aug" "dec" "feb" "jan" "jul" "jun" "mar" "may" "nov" "oct" "sep" );
}
node campaign 
{
  states = ( "1" "2" "3" "4" "5" "6" "7" "8" "9" "10" "11" "12" "13" "14" "15" "16" "17" "18" "19" "20" "21" "22" "23" "24" "25" "26" "27" "28" "29" "30" "31" "32" "33" "34" "35" "36" "37" "38" "39" "41" "43" "44" "46" "50" "51" "55" "58" );
}
node previous 
{
  states = ( "no" "yes" );
}
node poutcome 
{
  states = ( "failure" "other" "success" "unknown" );
}
node y 
{
  states = ( "no" "yes" );
}
node age.bin 
{
  states = ( "[17_24_" "[24_31_" "[31_38_" "[38_45_" "[45_52_" "[52_59_" "[59_66_" "[66_73_" "[73_80_" "[80_87_" "[87_94_" "[94_95]" );
}
node balance.bin 
{
  states = ( "ahorrador" "deudor" );
}
node duration.bin 
{
  states = ( "[   0_ 103_" "[ 103_ 180_" "[ 180_ 319_" "[ 319_4918]" );
}
potential ( job | housing loan ) 
{
  data = (((0.09501271 0.12235954 0.02655798 0.04329915 0.24691033 0.09045490 0.04075730 0.06451047 0.03900429 0.17319660 0.04286090 0.01507582)(0.142633229 0.199582027 0.051724138 0.030825496 0.189132706 0.067398119 0.028735632 0.098746082 0.002612330 0.172413793 0.015673981 0.000522466))((0.124084946 0.288685946 0.031456114 0.016017975 0.189171559 0.019569472 0.030368921 0.104370515 0.012104081 0.160252229 0.022686091 0.001232152)(0.1333333333 0.2607638889 0.0468750000 0.0149305556 0.1607638889 0.0215277778 0.0288194444 0.1284722222 0.0003472222 0.1857638889 0.0177083333 0.0006944444))) ;
}
potential ( marital | age.bin ) 
{
  data = ((0.00000000 0.08211144 0.91788856)(0.02662653 0.30956240 0.66381107)(0.07974698 0.55032192 0.36993110)(0.1328625 0.6703892 0.1967482)(0.1544163 0.7397571 0.1058266)(0.19068794 0.74470311 0.06460895)(0.17331164 0.79170057 0.03498779)(0.17213115 0.76639344 0.06147541)(0.22981366 0.75776398 0.01242236)(0.36111111 0.61111111 0.02777778)(0.2222222 0.7777778 0.0000000)(0.6666667 0.3333333 0.0000000)) ;
}
potential ( education | job ) 
{
  data = ((0.03880683 0.81870837 0.11004923 0.03243556)(0.39066339 0.54898649 0.01489558 0.04545455)(0.11637487 0.37590113 0.44593203 0.06179197)(0.5201958 0.2974296 0.1444308 0.0379437)(0.03134997 0.11740243 0.82725528 0.02399232)(0.3482920 0.4340255 0.1654387 0.0522438)(0.08806262 0.37866928 0.51174168 0.02152642)(0.08555759 0.82413163 0.05191956 0.03839122)(0.04530744 0.55501618 0.24433657 0.15533981)(0.02078385 0.69794141 0.24940618 0.03186857)(0.19705549 0.55379388 0.22989807 0.01925255)(0.1822917 0.2239583 0.1302083 0.4635417)) ;
}
potential ( default | loan balance.bin ) 
{
  data = (((0.993023058 0.006976942)(0.8929412 0.1070588))((0.97770541 0.02229459)(0.8578554 0.1421446))) ;
}
potential ( housing ) 
{
  data = ( 0.4441 0.5559 );
}
potential ( loan ) 
{
  data = ( 0.8402 0.1598 );
}
potential ( month | housing loan previous ) 
{
  data = ((((0.043231899 0.303672613 0.005771249 0.072088143 0.042077650 0.140608604 0.178384050 0.015949633 0.083525708 0.077019937 0.022140609 0.015529906)(0.07557211 0.12293773 0.03406067 0.11335817 0.06173497 0.06067057 0.06812134 0.04736562 0.13304949 0.12134114 0.08621607 0.07557211))((0.007501443 0.145989613 0.000577034 0.042700519 0.023081362 0.517022504 0.120600115 0.002885170 0.050778996 0.082515868 0.003462204 0.002885170)(0.033149171 0.038674033 0.005524862 0.237569061 0.132596685 0.027624309 0.044198895 0.011049724 0.082872928 0.314917127 0.049723757 0.022099448)))(((0.0602156433 0.0462353801 0.0005482456 0.0309758772 0.0123355263 0.1500365497 0.1049890351 0.0030153509 0.5152595029 0.0708150585 0.0036549708 0.0019188596)(0.172099544 0.034349807 0.005257624 0.102348405 0.049421661 0.010164739 0.022432527 0.008412198 0.422712934 0.137048721 0.016473887 0.019277953))((0.051626898 0.053362256 0.000867679 0.031670282 0.012147505 0.216485900 0.110629067 0.002603037 0.428633406 0.083731020 0.006073753 0.002169197)(0.17043478 0.02434783 0.00173913 0.10260870 0.08521739 0.01565217 0.01739130 0.00173913 0.38782609 0.16000000 0.01739130 0.01565217)))) ;
}
potential ( campaign | previous ) 
{
  data = ((3.667999e-01 2.780271e-01 1.238169e-01 8.236782e-02 4.022520e-02 3.084204e-02 1.750163e-02 1.232050e-02 8.281658e-03 7.506527e-03 4.977154e-03 4.650783e-03 3.630875e-03 2.284595e-03 2.162206e-03 2.121410e-03 2.121410e-03 1.264687e-03 1.427872e-03 1.264687e-03 9.791123e-04 4.487598e-04 6.527415e-04 6.119452e-04 4.487598e-04 3.263708e-04 2.447781e-04 5.303525e-04 3.671671e-04 2.447781e-04 3.671671e-04 2.447781e-04 8.159269e-05 1.223890e-04 1.631854e-04 1.223890e-04 8.159269e-05 4.079634e-05 0.000000e+00 4.079634e-05 1.223890e-04 4.079634e-05 4.079634e-05 0.000000e+00 0.000000e+00 4.079634e-05 4.079634e-05)(0.4907069971 0.2729591837 0.1106049563 0.0495626822 0.0333454810 0.0200437318 0.0112973761 0.0056486880 0.0025510204 0.0009110787 0.0010932945 0.0007288630 0.0001822157 0.0001822157 0.0000000000 0.0001822157 0.0000000000 0.0000000000 0.0000000000 0.0000000000 0.0000000000 0.0000000000 0.0000000000 0.0000000000 0.0000000000 0.0000000000 0.0000000000 0.0000000000 0.0000000000 0.0000000000 0.0000000000 0.0000000000 0.0000000000 0.0000000000 0.0000000000 0.0000000000 0.0000000000 0.0000000000 0.0000000000 0.0000000000 0.0000000000 0.0000000000 0.0000000000 0.0000000000 0.0000000000 0.0000000000 0.0000000000)) ;
}
potential ( previous ) 
{
  data = ( 0.8170667 0.1829333 );
}
potential ( poutcome | housing previous ) 
{
  data = (((0.0 0.0 0.0 1.0)(0.465533981 0.200000000 0.333009709 0.001456311))((0.0 0.0 0.0 1.0)(0.6753208868 0.2348308051 0.0892648775 0.0005834306))) ;
}
potential ( y | duration.bin ) 
{
  data = ((0.98853366 0.01146634)(0.94828272 0.05171728)(0.8903797 0.1096203)(0.7053865 0.2946135)) ;
}
potential ( age.bin | job ) 
{
  data = ((0.0086880973 0.1708659137 0.3182739647 0.2012742543 0.1699971040 0.1036779612 0.0257746887 0.0011584130 0.0002896032 0.0000000000 0.0000000000 0.0000000000)(0.0075245700 0.1412776413 0.2936117936 0.2349508600 0.1882678133 0.1110257985 0.0224201474 0.0006142506 0.0003071253 0.0000000000 0.0000000000 0.0000000000)(0.003089598 0.085478888 0.264675592 0.257466529 0.213182286 0.150360453 0.024716787 0.001029866 0.000000000 0.000000000 0.000000000 0.000000000)(0.006119951 0.046511628 0.188494492 0.200734394 0.223990208 0.219094247 0.090575275 0.013463892 0.003671971 0.007343941 0.000000000 0.000000000)(0.0022392834 0.1266794626 0.3437300064 0.2071337172 0.1580294306 0.1241202815 0.0347088932 0.0025591811 0.0007997441 0.0000000000 0.0000000000 0.0000000000)(0.000000000 0.002009377 0.006028131 0.022103148 0.050904220 0.324849297 0.315472204 0.127930342 0.098459478 0.044206296 0.006028131 0.002009377)(0.0009784736 0.1545988258 0.3023483366 0.2142857143 0.1673189824 0.1281800391 0.0283757339 0.0029354207 0.0009784736 0.0000000000 0.0000000000 0.0000000000)(0.0127970750 0.1842778793 0.3133455210 0.2135283364 0.1572212066 0.1078610603 0.0106032907 0.0003656307 0.0000000000 0.0000000000 0.0000000000 0.0000000000)(0.279935275 0.563106796 0.126213592 0.027508091 0.003236246 0.000000000 0.000000000 0.000000000 0.000000000 0.000000000 0.000000000 0.000000000)(0.004948535 0.144893112 0.350158353 0.215756136 0.155779889 0.108471892 0.018408551 0.001583531 0.000000000 0.000000000 0.000000000 0.000000000)(0.006795017 0.155152888 0.269535674 0.206115515 0.169875425 0.151755379 0.039637599 0.001132503 0.000000000 0.000000000 0.000000000 0.000000000)(0.00000000 0.07291667 0.11458333 0.15625000 0.26041667 0.25000000 0.11458333 0.02083333 0.01041667 0.00000000 0.00000000 0.00000000)) ;
}
potential ( balance.bin | housing loan ) 
{
  data = (((0.96599176 0.03400824)(0.8432602 0.1567398))((0.90490686 0.09509314)(0.8256944 0.1743056))) ;
}
potential ( duration.bin | poutcome ) 
{
  data = ((0.2409896 0.2730605 0.2559560 0.2299939)(0.2563681 0.2317173 0.2325390 0.2793755)(0.09072581 0.19556452 0.36794355 0.34576613)(0.2537831 0.2517029 0.2433821 0.2511319)) ;
}
