net
{
	propagationenginegenerator1791944048146838126L = "edu.ucla.belief.approx.BeliefPropagationSettings@36489670";
	node_size = (130 55);
}

node duration.bin
{
	states = ("de0a103" "de103a180" "de180a319" "de319a4918]" );
	position = (620 -341);
	excludepolicy = "include whole CPT";
	ismapvariable = "true";
	diagnosistype = "AUXILIARY";
}
node poutcome
{
	states = ("failure" "other" "success" "unknown" );
	position = (490 -94);
	excludepolicy = "include whole CPT";
	ismapvariable = "true";
	diagnosistype = "AUXILIARY";
}
node month
{
	states = ("apr" "aug" "dec" "feb" "jan" "jul" "jun" "mar" "may" "nov" "oct" "sep" );
	position = (383 -245);
	excludepolicy = "include whole CPT";
	ismapvariable = "false";
	diagnosistype = "AUXILIARY";
}
node housing
{
	states = ("no" "yes" );
	position = (673 61);
	excludepolicy = "include whole CPT";
	ismapvariable = "true";
	diagnosistype = "AUXILIARY";
}
node default
{
	states = ("no" "yes" );
	position = (304 -351);
	excludepolicy = "include whole CPT";
	ismapvariable = "false";
	diagnosistype = "AUXILIARY";
}
node job
{
	states = ("admin." "blue-collar" "entrepreneur" "housemaid" "management" "retired" "self-employed" "services" "student" "technician" "unemployed" "unknown" );
	position = (167 -78);
	excludepolicy = "include whole CPT";
	ismapvariable = "true";
	diagnosistype = "AUXILIARY";
}
node age.bin
{
	states = ("de17a24" "de24a31" "de31a38" "de38a45" "de45a52" "de52a59" "de59a66" "de66a73" "de73a80" "de80a87" "de87a94" "de94a95]" );
	position = (-52 -170);
	excludepolicy = "include whole CPT";
	ismapvariable = "false";
	diagnosistype = "AUXILIARY";
}
node balance.bin
{
	states = ("ahorrador" "deudor" );
	position = (729 -164);
	excludepolicy = "include whole CPT";
	ismapvariable = "false";
	diagnosistype = "AUXILIARY";
}
node campaign
{
	states = ("1" "2" "3" "4" "5" "6" "7" "8" "9" "10" "11" "12" "13" "14" "15" "16" "17" "18" "19" "20" "21" "22" "23" "24" "25" "26" "27" "28" "29" "30" "31" "32" "33" "34" "35" "36" "37" "38" "39" "41" "43" "44" "46" "50" "51" "55" "58" );
	position = (-54 -41);
	excludepolicy = "include whole CPT";
	ismapvariable = "false";
	diagnosistype = "AUXILIARY";
}
node y
{
	states = ("no" "yes" );
	position = (622 -446);
	excludepolicy = "include whole CPT";
	ismapvariable = "true";
	diagnosistype = "AUXILIARY";
}
node loan
{
	states = ("no" "yes" );
	position = (365 64);
	excludepolicy = "include whole CPT";
	ismapvariable = "true";
	diagnosistype = "AUXILIARY";
}
node education
{
	states = ("primary" "secondary" "tertiary" "unknown" );
	position = (158 -280);
	excludepolicy = "include whole CPT";
	ismapvariable = "false";
	diagnosistype = "AUXILIARY";
}
node marital
{
	states = ("divorced" "married" "single" );
	position = (-49 -313);
	excludepolicy = "include whole CPT";
	ismapvariable = "false";
	diagnosistype = "AUXILIARY";
}
node previous
{
	states = ("no" "yes" );
	position = (89 60);
	excludepolicy = "include whole CPT";
	ismapvariable = "true";
	diagnosistype = "AUXILIARY";
}
potential ( duration.bin | poutcome )
{
	data = ((	0.24097590240975902	0.27307269273072693	0.255974402559744	0.22997700229977003	)
		(	0.2564	0.2317	0.2325	0.2794	)
		(	0.09073	0.19556	0.36794	0.34577	)
		(	0.2538	0.2517	0.2434	0.2511	));
}
potential ( poutcome | housing previous )
{
	data = (((	0.0	0.0	0.0	1.0	)
		(	0.465534	0.2	0.33301	0.001456	))
		((	0.0	0.0	0.0	1.0	)
		(	0.6753209	0.2348308	0.0892649	5.834E-4	)));
}
potential ( month | housing loan previous )
{
	data = ((((	0.04323191353617292	0.3036723926552147	0.005770988458023083	0.07208785582428835	0.042077915844168305	0.14060871878256243	0.17838364323271352	0.0159499681000638	0.0835258329483341	0.07701984596030809	0.022140955718088565	0.01552996894006212	)
		(	0.07557	0.12294	0.03406	0.11336	0.06173	0.06067	0.06812	0.04737	0.13305	0.12134	0.08622	0.07557	))
		((	0.007501	0.14599	5.77E-4	0.042701	0.023081	0.517023	0.1206	0.002885	0.050779	0.082516	0.003462	0.002885	)
		(	0.033149000000000005	0.03867400000000001	0.005525000000000001	0.23756900000000003	0.13259700000000002	0.027624000000000003	0.04419900000000001	0.011050000000000003	0.08287300000000002	0.31491700000000006	0.049724000000000004	0.022099000000000004	)))
		(((	0.06021560000000001	0.04623540000000001	5.482000000000001E-4	0.030975900000000004	0.012335500000000001	0.15003650000000002	0.10498900000000001	0.0030154000000000005	0.5152595000000001	0.07081510000000002	0.0036550000000000003	0.0019189000000000003	)
		(	0.17209965580068842	0.0343499313001374	0.005257989484021033	0.1023477953044094	0.0494219011561977	0.010164979670040661	0.022432955134089737	0.008411983176033649	0.42271215457569095	0.1370487259025482	0.0164739670520659	0.019277961444077115	))
		((	0.05162689483731052	0.05336229466377053	8.676999132300086E-4	0.03167029683297031	0.012147498785250122	0.21648587835141217	0.1106290889370911	0.0026029997397000256	0.4286333571366643	0.08373099162690083	0.00607379939262006	0.0021691997830800215	)
		(	0.17043517043517042	0.02434802434802435	0.001739001739001739	0.10260910260910261	0.08521708521708521	0.01565201565201565	0.01739101739101739	0.001739001739001739	0.3878263878263878	0.16000016000015999	0.01739101739101739	0.01565201565201565	))));
}
potential ( housing | )
{
	data = (	0.4441	0.5559	);
}
potential ( default | loan balance.bin )
{
	data = (((	0.993023	0.006977	)
		(	0.8929	0.1071	))
		((	0.97771	0.02229	)
		(	0.8579	0.1421	)));
}
potential ( job | housing loan )
{
	data = (((	0.09501	0.12236	0.02656	0.0433	0.24691	0.09045	0.04076	0.06451	0.039	0.1732	0.04286	0.01508	)
		(	0.14263321426332143	0.19958201995820202	0.05172410517241052	0.030825503082550307	0.18913271891327188	0.06739810673981068	0.02873560287356029	0.098746109874611	0.0026123002612300265	0.17241381724138174	0.015674001567400158	5.225000522500052E-4	))
		((	0.12408500000000001	0.28868600000000005	0.031456000000000005	0.016018000000000004	0.18917200000000003	0.019569000000000003	0.030369000000000004	0.10437100000000002	0.012104000000000002	0.16025200000000003	0.022686000000000005	0.0012320000000000002	)
		(	0.13333331333333132	0.2607639260763926	0.046875004687500464	0.014930601493060148	0.1607639160763916	0.021527802152780214	0.028819402881940286	0.1284722128472213	3.4720003472000344E-4	0.18576391857639185	0.017708301770830177	6.944000694400069E-4	)));
}
potential ( age.bin | job )
{
	data = ((	0.008688099131190088	0.17086588291341168	0.31827396817260317	0.201274279872572	0.1699970830002917	0.10367798963220104	0.025774697422530257	0.0011583998841600115	2.895999710400029E-4	0.0	0.0	0.0	)
		(	0.007524600000000002	0.14127760000000003	0.29361180000000003	0.23495090000000005	0.18826780000000007	0.11102580000000002	0.022420100000000002	6.143000000000001E-4	3.0710000000000004E-4	0.0	0.0	0.0	)
		(	0.0030899691003089974	0.08547914520854792	0.2646773532264678	0.25746742532574673	0.21317786822131782	0.15035849641503587	0.02471975280247198	0.0010299897001029993	0.0	0.0	0.0	0.0	)
		(	0.0061200061200061195	0.046512046512046504	0.18849418849418847	0.2007342007342007	0.22399022399022397	0.21909421909421908	0.09057509057509057	0.013464013464013463	0.0036720036720036715	0.007344007344007343	0.0	0.0	)
		(	0.0022393000000000005	0.12667950000000003	0.34373000000000004	0.20713370000000003	0.15802940000000001	0.12412030000000002	0.03470890000000001	0.0025592000000000006	7.997000000000001E-4	0.0	0.0	0.0	)
		(	0.0	0.0020090060270180807	0.006028018084054253	0.022103066309198928	0.050904152712458135	0.32484997454992365	0.3154729464188392	0.12793038379115135	0.09845929537788614	0.044206132618397856	0.006028018084054253	0.0020090060270180807	)
		(	9.785000978500098E-4	0.15459881545988155	0.30234833023483304	0.21428572142857213	0.16731901673190167	0.12818001281800126	0.028375702837570283	0.002935400293540029	9.785000978500098E-4	0.0	0.0	0.0	)
		(	0.0127971	0.1842779	0.3133455	0.2135283	0.1572212	0.1078611	0.0106033	3.656E-4	0.0	0.0	0.0	0.0	)
		(	0.279935	0.563107	0.126214	0.027508	0.003236	0.0	0.0	0.0	0.0	0.0	0.0	0.0	)
		(	0.004948995051004949	0.14489285510714486	0.35015764984235015	0.21575578424421574	0.15577984422015576	0.10847189152810846	0.018408981591018406	0.0015839984160015837	0.0	0.0	0.0	0.0	)
		(	0.006794993205006795	0.1551528448471552	0.26953573046426954	0.20611579388420612	0.16987483012516988	0.15175484824515176	0.03963796036203964	0.001132998867001133	0.0	0.0	0.0	0.0	)
		(	0.0	0.07292	0.11458	0.15625	0.26042	0.25	0.11458	0.02083	0.01042	0.0	0.0	0.0	));
}
potential ( balance.bin | housing loan )
{
	data = (((	0.96599	0.03401	)
		(	0.8433	0.1567	))
		((	0.90491	0.09509	)
		(	0.8257	0.1743	)));
}
potential ( campaign | previous )
{
	data = ((	0.3667999116600046	0.2780270760986463	0.12381690380915487	0.08236781588160924	0.04022519798874012	0.030842038457898093	0.017501629124918552	0.012320499383975038	0.008281659585917025	0.007506529624673523	0.004977149751142515	0.004650779767461014	0.003630869818456511	0.002284599885770007	0.0021622098918895063	0.0021214098939295063	0.0021214098939295063	0.0012646899367655038	0.0014278699286065042	0.0012646899367655038	9.79109951044503E-4	4.4875997756200136E-4	6.527399673630019E-4	6.119499694025018E-4	4.4875997756200136E-4	3.2636998368150097E-4	2.4477998776100074E-4	5.303499734825016E-4	3.671699816415011E-4	2.4477998776100074E-4	3.671699816415011E-4	2.4477998776100074E-4	8.158999592050024E-5	1.2238999388050037E-4	1.631899918405005E-4	1.2238999388050037E-4	8.158999592050024E-5	4.0799997960000126E-5	0.0	4.0799997960000126E-5	1.2238999388050037E-4	4.0799997960000126E-5	4.0799997960000126E-5	0.0	0.0	4.0799997960000126E-5	4.0799997960000126E-5	)
		(	0.4907069509293049	0.2729591727040827	0.11060498893950109	0.049562695043730495	0.03334549666545033	0.0200436979956302	0.011297398870260112	0.005648699435130056	0.0025509997449000253	9.11099908890009E-4	0.0010932998906700109	7.288999271100072E-4	1.8219998178000183E-4	1.8219998178000183E-4	0.0	1.8219998178000183E-4	0.0	0.0	0.0	0.0	0.0	0.0	0.0	0.0	0.0	0.0	0.0	0.0	0.0	0.0	0.0	0.0	0.0	0.0	0.0	0.0	0.0	0.0	0.0	0.0	0.0	0.0	0.0	0.0	0.0	0.0	0.0	));
}
potential ( y | duration.bin )
{
	data = ((	0.98853	0.01147	)
		(	0.94828	0.05172	)
		(	0.8904	0.1096	)
		(	0.7054	0.2946	));
}
potential ( loan | )
{
	data = (	0.8402	0.1598	);
}
potential ( education | job )
{
	data = ((	0.03880961190388096	0.8187018129818702	0.11004889951100488	0.03243967560324396	)
		(	0.39066	0.54899	0.0149	0.04545	)
		(	0.11637116371163712	0.37590375903759043	0.44593445934459347	0.06179061790617906	)
		(	0.5201999999999999	0.29742999999999997	0.14442999999999998	0.037939999999999995	)
		(	0.03135	0.1174	0.82726	0.02399	)
		(	0.34829	0.43403	0.16544	0.05224	)
		(	0.08806	0.37867	0.51174	0.02153	)
		(	0.08556	0.82413	0.05192	0.03839	)
		(	0.04530954690453096	0.5550144498555015	0.2443375566244338	0.15533844661553387	)
		(	0.02078	0.69794	0.24941	0.03187	)
		(	0.19706	0.55379	0.2299	0.01925	)
		(	0.1823	0.224	0.1302	0.4635	));
}
potential ( marital | age.bin )
{
	data = ((	0.0	0.08211	0.91789	)
		(	0.02663	0.30956	0.66381	)
		(	0.07975	0.55032	0.36993	)
		(	0.1329	0.6704	0.1967	)
		(	0.1544	0.7398	0.1058	)
		(	0.19069	0.7447	0.06461	)
		(	0.17331000000000002	0.7917000000000001	0.03499000000000001	)
		(	0.17213	0.76639	0.06148	)
		(	0.22981229812298123	0.7577675776757768	0.012420124201242014	)
		(	0.36111	0.61111	0.02778	)
		(	0.2222	0.7778	0.0	)
		(	0.6667	0.3333	0.0	));
}
potential ( previous | )
{
	data = (	0.8171	0.1829	);
}
